{'hidden': [[-242.4305539587514, 168.51515172310215, 168.50093948802643, 168.50728542052642, -182.27279394644052, -224.3521975915798, 168.8446372018185, -194.4921892688655, -169.17972093216426], [-242.4305539587514, 168.51515172310215, 168.50093948802643, 168.50728542052642, -182.27279394644052, -224.3521975915798, 168.8446372018185, -194.4921892688655, -169.17972093216426], [-242.4305539587514, 168.51515172310215, 168.50093948802643, 168.50728542052642, -182.27279394644052, -224.3521975915798, 168.8446372018185, -194.4921892688655, -169.17972093216426]], 'output': [[-8.270493700061534, -8.270493700061534, -8.270493700061534, -1.1903331909920014], [2.533666849090964, 2.533666849090964, 2.533666849090964, -3.790821581162079], [2.135687863557067, 2.135687863557067, 2.135687863557067, -3.4856701546275537], [2.035253286525002, 2.035253286525002, 2.035253286525002, -3.553746934426057], [-8.249447549825494, -8.249447549825494, -8.249447549825494, -1.0671902240429278], [-8.273901631943552, -8.273901631943552, -8.273901631943552, -1.0012093807390767], [24.31969862086615, 24.31969862086615, 24.31969862086615, -28.07484149737426], [-8.264754610304946, -8.264754610304946, -8.264754610304946, -1.1302113730491747]]}