{'hidden': [[83.00624784941847, -111.81727421986139, -132.38123104345158, 82.52703882777128, 82.67199477779452, 80.89955716352381, -112.82357172701589, -55.501765851643626, -83.41900422346467], [83.00624784941847, -111.81727421986139, -132.38123104345158, 82.52703882777128, 82.67199477779452, 80.89955716352381, -112.82357172701589, -55.501765851643626, -83.41900422346467], [83.00624784941847, -111.81727421986139, -132.38123104345158, 82.52703882777128, 82.67199477779452, 80.89955716352381, -112.82357172701589, -55.501765851643626, -83.41900422346467]], 'output': [[18.392793138237586, 18.392793138237586, 18.392793138237586, -20.666291072225896], [-8.471062266126404, -8.471062266126404, -8.471062266126404, -1.0585883410840036], [-8.598978728197512, -8.598978728197512, -8.598978728197512, -1.2496489745000159], [2.742537920262553, 2.742537920262553, 2.742537920262553, -3.7471801546606778], [2.5800045185072533, 2.5800045185072533, 2.5800045185072533, -3.5267551602952314], [-1.1543499756546542, -1.1543499756546542, -1.1543499756546542, -1.604124568205539], [-8.704774284819939, -8.704774284819939, -8.704774284819939, -1.1916643243212213], [-8.323414667090088, -8.323414667090088, -8.323414667090088, -1.1230656983477318]]}