{'W10': [[-21.665110305232407, 42.20953876346463, 44.284455123311304, -93.28829261266795, 42.28154739145556, 42.660058725688586, -8.087318702880411, -90.61305436652084, -42.47314812650972], [20.202194293005544, -23.777133967119262, 16.575901002731054, 15.721389119207343, -56.0236398985343, 19.330837354032553, 18.623868617685652, -27.013415417223737, -17.223524745411886], [16.23413586199381, 21.614215440953284, 18.97262116491025, -43.38387744867094, -26.08269601190677, -48.40717002416068, 22.034803102749244, 19.441691403982233, -19.054462689160232]], 'W21': [[-10.708209174967244, 8.949307384575993, -6.725325400278916, -5.518843567030238], [4.417790169491606, -9.704656051898215, 10.407467769735684, -9.131192519669645], [14.856987945119394, -1.4986972807003323, 0.6459046835818033, -10.304231140545816], [-13.399772616657758, -6.194487809632988, -10.905570551352504, 3.0093615034841092], [6.979134929724263, -12.61909449724149, -9.983510495975843, -0.7432453151812485], [9.468379054258454, 6.830224187892384, -10.888969418745976, -8.910049947880884], [-6.4312642194574385, 5.759306334328269, 8.76640073732277, -9.8122751398559], [-14.789387647427045, -10.321936711610295, 5.015516730965865, -1.1144429892515069]]}