{'W10': [[-0.0856651399847542, 0.3074568489286884, -0.8372994768211636, -0.3704680580923479, 0.048230104111911656], [0.1422515492143703, 0.3188474172745377, -0.46385875040998076, -0.2255888783966051, 0.07078175493513585], [-0.08465157234969935, 0.3152202393613135, -0.8553623179153833, -0.3795179444099413, 0.05028365494788361], [-0.2945989159012302, -0.9917278370542651, 1.673483537377441, 0.7816342287218673, -0.2008370661497483], [-0.08505011863795953, 0.3178801747592512, -0.8562191677506206, -0.37809735584791765, 0.04947889804968752], [-0.08586250566703629, 0.3032455914255157, -0.8297748114621406, -0.3674944066198163, 0.04778021543515362]], 'W21': [[0.44824460968703306, 0.2710698021737573, 0.45182934252569396, -1.446241992012417, 0.45641613827676775, 0.44488858695584504, -0.13334071473596462], [-0.2870540972560791, -0.3811415047849062, -0.2914377932437359, 0.35230699218282097, -0.2950419302005367, -0.28380259938370644, -0.4913693860275091], [-0.33193967426708354, -0.6144553229968059, -0.33493633467121503, 0.5058417481005092, -0.3334136947469258, -0.3314297549520276, -0.44030740076950103]]}