{'hidden': [[228.44011426654583, -242.1433295528222, -258.6472658972364, -306.3906341610638, 225.93218445881197, 227.42674685239962, 228.95309409263834, -332.2896085986271, -228.71869853935115], [228.44011426654583, -242.1433295528222, -258.6472658972364, -306.3906341610638, 225.93218445881197, 227.42674685239962, 228.95309409263834, -332.2896085986271, -228.71869853935115], [228.44011426654583, -242.1433295528222, -258.6472658972364, -306.3906341610638, 225.93218445881197, 227.42674685239962, 228.95309409263834, -332.2896085986271, -228.71869853935115]], 'output': [[2.4027541123296507, 2.4027541123296507, 2.4027541123296507, -3.985346322900869], [-14.822439716520861, -14.822439716520861, -14.822439716520861, -1.230902102425554], [-14.903165850000384, -14.903165850000384, -14.903165850000384, -1.0491748931804779], [-14.868271808507297, -14.868271808507297, -14.868271808507297, -1.172861587460135], [-1.2841342813328132, -1.2841342813328132, -1.2841342813328132, -1.4109761376447019], [1.8204000759832697, 1.8204000759832697, 1.8204000759832697, -3.4443547257863956], [23.976273061987488, 23.976273061987488, 23.976273061987488, -36.13940778049397], [-14.897637274539623, -14.897637274539623, -14.897637274539623, -1.1123035061928652]]}