{'hidden': [[0.06455331349200963, 0.0645476486962429, 0.0645418836222353, 0.06453601851032885, 0.06453005360019504, 0.06452398913088522, 0.06451782534080762, 0.06451156246773901, 0.44626229486044167], [0.06455331349200963, 0.0645476486962429, 0.0645418836222353, 0.06453601851032885, 0.06453005360019504, 0.06452398913088522, 0.06451782534080762, 0.06451156246773901, 0.44626229486044167], [0.06455331349200963, 0.0645476486962429, 0.0645418836222353, 0.06453601851032885, 0.06453005360019504, 0.06452398913088522, 0.06451782534080762, 0.06451156246773901, 0.44626229486044167]], 'output': [[-0.52279306545721, -0.52279306545721, -0.52279306545721, -0.9677981129395506], [-0.5225983990362841, -0.5225983990362841, -0.5225983990362841, -0.967489392213891], [-0.5224036799995851, -0.5224036799995851, -0.5224036799995851, -0.9671803982762643], [-0.5222089081443478, -0.5222089081443478, -0.5222089081443478, -0.9668711310826416], [-0.5220140832679708, -0.5220140832679708, -0.5220140832679708, -0.9665615905881733], [-0.5218192051679589, -0.5218192051679589, -0.5218192051679589, -0.9662517767473148], [-0.5216242736419376, -0.5216242736419376, -0.5216242736419376, -0.965941689513759], [-0.5214292884876495, -0.5214292884876495, -0.5214292884876495, -0.965631328840474]]}