{'hidden': [[-110.80315707025534, -83.18178639284157, 68.31216531848858, 68.73850585402084, 68.23880628744709, 68.32081695126527, -49.09907505068427, -99.95723133205452, -69.43095543461442], [-110.80315707025534, -83.18178639284157, 68.31216531848858, 68.73850585402084, 68.23880628744709, 68.32081695126527, -49.09907505068427, -99.95723133205452, -69.43095543461442], [-110.80315707025534, -83.18178639284157, 68.31216531848858, 68.73850585402084, 68.23880628744709, 68.32081695126527, -49.09907505068427, -99.95723133205452, -69.43095543461442]], 'output': [[-7.305522246104883, -7.305522246104883, -7.305522246104883, -1.1877905062653658], [-7.344485170274271, -7.344485170274271, -7.344485170274271, -1.1337251422439085], [2.644483888838712, 2.644483888838712, 2.644483888838712, -3.475193409097426], [20.074212042370533, 20.074212042370533, 20.074212042370533, -17.772536731485154], [2.894625628889654, 2.894625628889654, 2.894625628889654, -3.52611187792663], [3.403421976887124, 3.403421976887124, 3.403421976887124, -3.8251658376426727], [-7.134091418581664, -7.134091418581664, -7.134091418581664, -1.0770524579708503], [-7.2359916661174015, -7.2359916661174015, -7.2359916661174015, -1.017945165055072]]}